<?xml version="1.0"?>
<opencv_storage>
<cascade>
  <stageType>BOOST</stageType>
  <featureType>LBP</featureType>
  <height>230</height>
  <width>100</width>
  <stageParams>
    <boostType>GAB</boostType>
    <minHitRate>9.9999499320983887e-01</minHitRate>
    <maxFalseAlarm>4.1999998688697815e-01</maxFalseAlarm>
    <weightTrimRate>9.4999999999999996e-01</weightTrimRate>
    <maxDepth>1</maxDepth>
    <maxWeakCount>120</maxWeakCount></stageParams>
  <featureParams>
    <maxCatCount>256</maxCatCount>
    <featSize>1</featSize></featureParams>
  <stageNum>5</stageNum>
  <stages>
    <!-- stage 0 -->
    <_>
      <maxWeakCount>2</maxWeakCount>
      <stageThreshold>-8.2381531596183777e-02</stageThreshold>
      <weakClassifiers>
        <_>
          <internalNodes>
            0 -1 6 291281 -1656750080 16777361 -1862270972 51400
            -2147483648 32777 8388616</internalNodes>
          <leafValues>
            -9.7183096408843994e-01 8.7341773509979248e-01</leafValues></_>
        <_>
          <internalNodes>
            0 -1 0 -1073544434 33652738 0 1082146818 1081344 2 8324
            -1056190333</internalNodes>
          <leafValues>
            -9.5579928159713745e-01 9.1153419017791748e-01</leafValues></_></weakClassifiers></_>
    <!-- stage 1 -->
    <_>
      <maxWeakCount>2</maxWeakCount>
      <stageThreshold>9.1061219573020935e-02</stageThreshold>
      <weakClassifiers>
        <_>
          <internalNodes>
            0 -1 1 -1044123794 1878130689 268435488 -2147352576
            2147434304 2012741631 -32906 -150994945</internalNodes>
          <leafValues>
            -8.7500000000000000e-01 1.</leafValues></_>
        <_>
          <internalNodes>
            0 -1 3 -1056718833 1074921472 0 67125248 3 0 32 -205291005</internalNodes>
          <leafValues>
            -9.0893876552581787e-01 9.7727733850479126e-01</leafValues></_></weakClassifiers></_>
    <!-- stage 2 -->
    <_>
      <maxWeakCount>2</maxWeakCount>
      <stageThreshold>3.8831979036331177e-02</stageThreshold>
      <weakClassifiers>
        <_>
          <internalNodes>
            0 -1 4 1226030959 -419495936 6 -2013200384 2013265776
            2013265911 -557194 -134873097</internalNodes>
          <leafValues>
            -8.5000002384185791e-01 9.7142857313156128e-01</leafValues></_>
        <_>
          <internalNodes>
            0 -1 8 -805117565 -2134900736 4194304 65540 1073758209 65538
            1224753158 1343983691</internalNodes>
          <leafValues>
            -9.3259656429290771e-01 9.1605180501937866e-01</leafValues></_></weakClassifiers></_>
    <!-- stage 3 -->
    <_>
      <maxWeakCount>2</maxWeakCount>
      <stageThreshold>1.0298770666122437e-01</stageThreshold>
      <weakClassifiers>
        <_>
          <internalNodes>
            0 -1 7 1049919089 -1073741825 1048575 -1207992448 -31 -1
            -1073774657 -1090756772</internalNodes>
          <leafValues>
            -8.4810125827789307e-01 9.4366198778152466e-01</leafValues></_>
        <_>
          <internalNodes>
            0 -1 2 -1073229822 1358970880 268435456 268439552 589827 0
            32896 -805052409</internalNodes>
          <leafValues>
            -8.4067428112030029e-01 9.7756838798522949e-01</leafValues></_></weakClassifiers></_>
    <!-- stage 4 -->
    <_>
      <maxWeakCount>1</maxWeakCount>
      <stageThreshold>8.0722892284393311e-01</stageThreshold>
      <weakClassifiers>
        <_>
          <internalNodes>
            0 -1 5 -1073535738 -2013199871 285282304 268517378
            1107329024 0 536936449 -190586872</internalNodes>
          <leafValues>
            -1. 8.0722892284393311e-01</leafValues></_></weakClassifiers></_></stages>
  <features>
    <_>
      <rect>
        0 16 4 23</rect></_>
    <_>
      <rect>
        0 34 1 10</rect></_>
    <_>
      <rect>
        0 42 4 60</rect></_>
    <_>
      <rect>
        0 43 2 11</rect></_>
    <_>
      <rect>
        0 106 5 28</rect></_>
    <_>
      <rect>
        0 177 4 10</rect></_>
    <_>
      <rect>
        16 1 12 5</rect></_>
    <_>
      <rect>
        53 8 10 1</rect></_>
    <_>
      <rect>
        89 171 2 6</rect></_></features></cascade>
</opencv_storage>
