<?xml version="1.0"?>
<opencv_storage>
<cascade>
  <stageType>BOOST</stageType>
  <featureType>HAAR</featureType>
  <height>69</height>
  <width>30</width>
  <stageParams>
    <boostType>GAB</boostType>
    <minHitRate>9.9999499320983887e-01</minHitRate>
    <maxFalseAlarm>4.1999998688697815e-01</maxFalseAlarm>
    <weightTrimRate>9.4999999999999996e-01</weightTrimRate>
    <maxDepth>1</maxDepth>
    <maxWeakCount>100</maxWeakCount></stageParams>
  <featureParams>
    <maxCatCount>0</maxCatCount>
    <featSize>1</featSize>
    <mode>BASIC</mode></featureParams>
  <stageNum>5</stageNum>
  <stages>
    <!-- stage 0 -->
    <_>
      <maxWeakCount>3</maxWeakCount>
      <stageThreshold>-7.3420858383178711e-01</stageThreshold>
      <weakClassifiers>
        <_>
          <internalNodes>
            0 -1 4 1.1258976534008980e-02</internalNodes>
          <leafValues>
            -7.0212763547897339e-01 1.</leafValues></_>
        <_>
          <internalNodes>
            0 -1 8 -5.1471740007400513e-03</internalNodes>
          <leafValues>
            8.7921434640884399e-01 -6.8731117248535156e-01</leafValues></_>
        <_>
          <internalNodes>
            0 -1 11 -1.4225447375793010e-04</internalNodes>
          <leafValues>
            -1. 6.5523022413253784e-01</leafValues></_></weakClassifiers></_>
    <!-- stage 1 -->
    <_>
      <maxWeakCount>2</maxWeakCount>
      <stageThreshold>4.5624128542840481e-03</stageThreshold>
      <weakClassifiers>
        <_>
          <internalNodes>
            0 -1 0 -3.8065807893872261e-03</internalNodes>
          <leafValues>
            1. -7.3913043737411499e-01</leafValues></_>
        <_>
          <internalNodes>
            0 -1 5 -1.6475038137286901e-03</internalNodes>
          <leafValues>
            7.4369287490844727e-01 -8.3816164731979370e-01</leafValues></_></weakClassifiers></_>
    <!-- stage 2 -->
    <_>
      <maxWeakCount>3</maxWeakCount>
      <stageThreshold>-7.0139330625534058e-01</stageThreshold>
      <weakClassifiers>
        <_>
          <internalNodes>
            0 -1 9 -1.5531196550000459e-04</internalNodes>
          <leafValues>
            1. -7.7777779102325439e-01</leafValues></_>
        <_>
          <internalNodes>
            0 -1 2 -1.1270010145381093e-03</internalNodes>
          <leafValues>
            1. -6.4131504297256470e-01</leafValues></_>
        <_>
          <internalNodes>
            0 -1 1 1.0456717573106289e-03</internalNodes>
          <leafValues>
            -9.0034067630767822e-01 7.1769946813583374e-01</leafValues></_></weakClassifiers></_>
    <!-- stage 3 -->
    <_>
      <maxWeakCount>2</maxWeakCount>
      <stageThreshold>-1.2553375959396362e-01</stageThreshold>
      <weakClassifiers>
        <_>
          <internalNodes>
            0 -1 7 1.1449176818132401e-03</internalNodes>
          <leafValues>
            -8.1395345926284790e-01 8.8235294818878174e-01</leafValues></_>
        <_>
          <internalNodes>
            0 -1 3 4.8351881559938192e-04</internalNodes>
          <leafValues>
            -8.6417973041534424e-01 6.8841969966888428e-01</leafValues></_></weakClassifiers></_>
    <!-- stage 4 -->
    <_>
      <maxWeakCount>2</maxWeakCount>
      <stageThreshold>-1.2785278260707855e-01</stageThreshold>
      <weakClassifiers>
        <_>
          <internalNodes>
            0 -1 10 -7.6463789446279407e-04</internalNodes>
          <leafValues>
            7.8947371244430542e-01 -8.5365855693817139e-01</leafValues></_>
        <_>
          <internalNodes>
            0 -1 6 -1.3244416331872344e-03</internalNodes>
          <leafValues>
            7.2580575942993164e-01 -8.6253708600997925e-01</leafValues></_></weakClassifiers></_></stages>
  <features>
    <_>
      <rects>
        <_>
          1 6 3 20 -1.</_>
        <_>
          2 6 1 20 3.</_></rects>
      <tilted>0</tilted></_>
    <_>
      <rects>
        <_>
          1 45 6 16 -1.</_>
        <_>
          4 45 3 16 2.</_></rects>
      <tilted>0</tilted></_>
    <_>
      <rects>
        <_>
          1 58 3 11 -1.</_>
        <_>
          2 58 1 11 3.</_></rects>
      <tilted>0</tilted></_>
    <_>
      <rects>
        <_>
          2 2 4 8 -1.</_>
        <_>
          2 6 4 4 2.</_></rects>
      <tilted>0</tilted></_>
    <_>
      <rects>
        <_>
          8 2 6 16 -1.</_>
        <_>
          8 10 6 8 2.</_></rects>
      <tilted>0</tilted></_>
    <_>
      <rects>
        <_>
          13 33 1 22 -1.</_>
        <_>
          13 44 1 11 2.</_></rects>
      <tilted>0</tilted></_>
    <_>
      <rects>
        <_>
          24 35 6 7 -1.</_>
        <_>
          26 35 2 7 3.</_></rects>
      <tilted>0</tilted></_>
    <_>
      <rects>
        <_>
          25 23 3 35 -1.</_>
        <_>
          26 23 1 35 3.</_></rects>
      <tilted>0</tilted></_>
    <_>
      <rects>
        <_>
          26 25 3 32 -1.</_>
        <_>
          27 25 1 32 3.</_></rects>
      <tilted>0</tilted></_>
    <_>
      <rects>
        <_>
          26 29 3 2 -1.</_>
        <_>
          27 29 1 2 3.</_></rects>
      <tilted>0</tilted></_>
    <_>
      <rects>
        <_>
          26 43 3 11 -1.</_>
        <_>
          27 43 1 11 3.</_></rects>
      <tilted>0</tilted></_>
    <_>
      <rects>
        <_>
          26 46 4 9 -1.</_>
        <_>
          26 49 4 3 3.</_></rects>
      <tilted>0</tilted></_></features></cascade>
</opencv_storage>
