<?xml version="1.0"?>
<opencv_storage>
<cascade>
  <stageType>BOOST</stageType>
  <featureType>LBP</featureType>
  <height>161</height>
  <width>70</width>
  <stageParams>
    <boostType>GAB</boostType>
    <minHitRate>9.9999499320983887e-01</minHitRate>
    <maxFalseAlarm>4.1999998688697815e-01</maxFalseAlarm>
    <weightTrimRate>9.4999999999999996e-01</weightTrimRate>
    <maxDepth>10</maxDepth>
    <maxWeakCount>120</maxWeakCount></stageParams>
  <featureParams>
    <maxCatCount>256</maxCatCount>
    <featSize>1</featSize></featureParams>
  <stageNum>5</stageNum>
  <stages>
    <!-- stage 0 -->
    <_>
      <maxWeakCount>1</maxWeakCount>
      <stageThreshold>-7.5000000000000000e-01</stageThreshold>
      <weakClassifiers>
        <_>
          <internalNodes>
            1 2 35 -313528570 -1065107453 -805093374 -1069096830
            134988290 536985602 -985415168 -238551069 3 4 36 -201850897
            1074249738 196672 -1073311224 623107 1084358657 -939409405
            -168297513 5 6 127 -301994458 551993326 -65658 570461182
            2113928999 1157562359 -16777372 1358430199 7 8 133
            -136842241 1077960963 16384 1368244226 1091027074
            -2147221503 -2147360246 -773852277 0 -1 30 -2147409660 18432
            0 16777216 2 0 32768 98306 9 -2 96 1367408857 286330896
            1090523413 1593901845 -89959 -1 -32867 -1082245891 10 11 126
            1879043882 586153983 -16847360 -520093698 2147450662
            1384120183 -134218220 1886781183 12 13 66 -715130881
            -787365757 -1073741824 -1052540925 1078181890 65536
            -1073626870 -203691281 -3 -4 17 38914 1 0 0 0 65536 0 3 -5
            14 119 -510402209 1359159555 167936 1208188928 268468225
            131072 -1073709047 -208932213 -6 -7 33 -1039957869
            -1878949888 1 1073807364 131 536870912 16416 -804019709 -8
            15 93 0 268435456 -1879048192 268435456 128 0 536871112
            136314880 16 -9 32 -11535409 -799817725 -2147319743
            -536641527 1342291979 -1072562176 -1073495541 -70517809 -10
            -11 0 0 0 0 0 0 0 0 131072 -12 -13 0 0 0 0 0 0 0 131072
            -2147483648 -14 17 46 16384 0 32768 -1360068736 1098872692
            1097859072 1949827072 1073758324 18 -15 68 -70255621
            -786874349 -2146860397 -678702781 -1060388733 -2013036413
            -893157205 -11536481 -16 -17 23 0 0 0 0 524288 0 2 0 19 -18
            55 -2102273 -648838837 1343438851 -217624569 -267980565
            -1022950773 -645144437 -33 -19 -20 20 -201327617 -217849325
            1092665561 -585908221 -466900773 -106716925 -1056253205
            -2098177</internalNodes>
          <leafValues>
            -1. 1. 1. -1. 1. -1. -1. 1. -1. 8.0000001192092896e-01 -1.
            1. -1. 1. -7.5000000000000000e-01 7.5000000000000000e-01 -1.
            1. 1. -1. 1.</leafValues></_></weakClassifiers></_>
    <!-- stage 1 -->
    <_>
      <maxWeakCount>1</maxWeakCount>
      <stageThreshold>6.6666668653488159e-01</stageThreshold>
      <weakClassifiers>
        <_>
          <internalNodes>
            1 2 94 4460885 -539618883 -687787521 -2942695 -1375151876
            -106329672 -1182487555 -1432092640 3 4 95 -578498307
            -6810201 -788524577 -6683631 -1723102787 -5766989 -508909377
            -1145558744 5 6 27 -294654418 116129791 -266403930
            -420806914 2013233014 1442316287 -185075914 1983381255 7 8
            120 -710934593 -820518653 -1073692152 -225197090 1085259915
            -510934905 -938749266 -196608305 9 10 52 -1073495594
            1879671040 0 1073741824 98306 805306370 98432 -268254957 11
            12 34 -518798261 -2147418110 131073 65536 -1073741245 131202
            -939491070 -205006697 13 14 45 -16777686 1613692927
            837550080 -386994368 -35052 2004287351 -939557100 1683384384
            15 0 77 -136970241 -36597485 -787377665 -13561803 -310142017
            -133447415 -1836529441 -2389557 16 17 56 1342226511
            302055425 -2147418112 268435457 131208 285212672 8192
            -520040437 -1 -2 9 1623298243 1375830019 16777218 285212673
            -2146959358 0 -2146910200 -536099582 -3 -4 24 0 0 17 2 0
            671088640 34 16777217 -5 -6 51 -787230253 -804057087
            1073758464 -784269311 -369000310 16777216 1090584586
            -108801789 -7 -8 13 98306 0 0 0 0 0 0 16777217 -9 -10 11
            -2147229549 1342177280 0 81920 34817 0 -2147450870
            -939474904 18 19 118 1280034 1089990574 64 1659829984
            2139062100 1618477045 2146926416 1346191415 20 -11 83
            -2100225 -787758909 -1040084990 -715669297 -1018975825
            -1845378685 -251533169 -257 -12 -13 4 -234635127 1073782788
            0 285212672 138 -1073741792 8 -922582518 -14 -15 18 128
            -2139095040 0 16777216 0 0 0 65536 -16 -17 8 -1073688560 0 0
            0 268435456 0 32776 1073774728 -18 21 57 1073741832 0 0 0
            524288 128 8192 40960 22 -19 74 -69206017 -241444677
            -720874549 -674246425 -682624853 -997736320 -472136773 -1025
            -20 -21 2 0 0 0 0 256 0 0 0 23 -22 97 -721298947 -45019055
            -1761553955 -10944357 -1207373057 -92235623 -2013227265
            -73432853 -23 -24 19 -612761601 -3026663 -780044835
            -552269551 -1734702085 -1180776277 -385103169 -7366245</internalNodes>
          <leafValues>
            1. -1. 1. -1. 1. -1. 1. -1. 1. -1. 1. 8.0000001192092896e-01
            -1. 1. -1. 1. -1. 1. -1. 7.1428573131561279e-01 -1. 1.
            6.6666668653488159e-01 -1. 1.</leafValues></_></weakClassifiers></_>
    <!-- stage 2 -->
    <_>
      <maxWeakCount>1</maxWeakCount>
      <stageThreshold>8.0000001192092896e-01</stageThreshold>
      <weakClassifiers>
        <_>
          <internalNodes>
            1 2 134 -3150033 39830407 1367533570 -1001996154 -740834717
            537461018 -1328026816 -789055513 3 4 117 -335547473
            1184092289 1560367630 -1039949814 -2146197245 1073901698
            -762852670 -169348101 5 6 100 1580816 -134414343 -1878982509
            -1107550204 -98308 -1 -924835907 146277460 7 8 131
            -134217777 -796663741 -2147418109 -787115517 -1072971125
            33636355 -1048330230 -36703541 9 10 48 1073906050 1224736784
            4097 218169344 131080 134217984 33558666 1359151633 11 12 59
            1360187637 -1857028093 9437209 -788381565 -935294518
            -1736310655 524457 -1415573173 13 14 132 -285215196 49217518
            1878999054 183431150 2013101847 49151983 1065353012
            1685584774 15 16 85 -1122806817 -38710829 -1693380097
            -15246371 -1412915973 -6641509 -1467372865 -1080357430 0 -1
            1 1073807360 0 4096 65536 0 0 128 0 -2 -3 0 -1862238207
            1358954514 268439553 1360068608 -2147450752 -2147483648
            36992 -1308393325 17 18 108 0 268435456 4097 536608768
            -122711 127 0 134219776 -4 19 72 -922354085 1359089665 4125
            1359020034 -2147319654 -2013265918 -2147483493 -83103509 -5
            -6 25 0 268435456 0 -2147418112 33554432 0 10 1744912387 -7
            -8 53 -1073626240 0 1073741840 1342242816 65666 16908288
            -2138799998 -805076478 20 21 38 1074184230 4190078
            -2147483640 1827598062 1475835652 1970634613 536706852
            545579136 22 -9 114 -1 -606912241 -1073659841 -778583677
            -1055407461 -201091037 -939273521 -1049601 -10 -11 11 576
            268435456 0 16384 0 -1610612608 2 -1073643518 -12 -13 5
            16809987 268435456 0 16777216 0 0 1073741960 1073774594 -14
            -15 3 0 0 0 0 0 0 0 65536 -16 -17 0 8 0 0 0 0 0 0 16809984
            -18 -19 3 1342423043 0 0 1024 0 -2147483648 128 -536117120
            23 24 44 16941568 -2147483648 0 0 0 32768 0 1073741824 25
            -20 112 -2099233 -143404789 -268402273 -183242421 -779359237
            -183795519 -751836005 -2098449 -21 -22 0 -2147483647
            1073741824 16384 65536 128 32768 -2147483648 196608 -23 26
            49 4096 0 16777216 -1879048192 64 0 0 0 27 -24 50 -2097153
            -585907573 -716996193 -104611833 -1064309845 -661155701
            -926221925 -1048613 -25 -26 15 0 0 0 0 0 0 524288 0 28 -27
            67 -715662849 -7250539 -721387009 -578354921 -1551261505
            -4489047 -2004243973 -1078529 -28 -29 39 -1025 -677644961
            -263097541 -76033761 -3433537 -92045169 -152443909 -1048609</internalNodes>
          <leafValues>
            -1. 1. -1. 1. -1. -1. 1. -1. 1. 8.0000001192092896e-01 -1.
            1. -1. 1. -1. 1. -1. 1. -1. 1. 1. -1. 1. -1. 1. -1. 1. 1.
            -1. 1.</leafValues></_></weakClassifiers></_>
    <!-- stage 3 -->
    <_>
      <maxWeakCount>2</maxWeakCount>
      <stageThreshold>2.5856497231870890e-03</stageThreshold>
      <weakClassifiers>
        <_>
          <internalNodes>
            1 2 101 72357717 -2821871 -1862084641 -4452005 -888366339
            -72832629 -1173636353 -1346631664 3 4 88 889205117
            -774287337 1560385023 -1617510115 -1684432645 -5328488
            -91743233 -1079508840 5 6 41 -4273 -1358954498 -65618
            -386990082 2130671462 2004877303 -557788 -168296457 7 8 70
            -673188881 -761282277 -536489982 -645340478 -758125621
            822280324 -734142314 -137363457 9 10 43 -6815766 -2130640896
            524304 1074135040 -1054718 2012741631 -536706800 -1057521673
            11 12 135 -800988593 114817 541065216 1476493842 -2147385214
            1342242816 1610661888 -796933557 13 14 125 -335548884
            149942015 264241154 721330692 2147483447 1711243135
            2013263717 1962921995 15 16 103 -651054083 -49192685
            353440255 -14839777 -1329014341 -74604405 -1467183361
            -1078241105 0 17 123 -989642749 150994944 -2147483648
            -2147418111 8 33554432 8 -1862107128 -1 -2 22 1351668123
            268500997 65537 -2130493440 -2013233150 -1056931840 16809986
            -628408253 18 19 73 1536 17833985 1 184549376 -134217592 255
            1 537395200 20 21 65 -648297809 -1824161790 86288 1343455515
            -1040154582 1090519040 -2113699704 -187958897 -3 -4 40 8248
            4 4 0 32896 32768 16384 1115684866 -5 -6 90 -2147381134
            -1845424128 16777249 335609857 136 -2113404928 129
            -1995800294 22 23 122 -1073312146 15761636 8318600
            -291110910 1979703153 116785143 -33554620 7667572 24 25 115
            -134480929 -2910069 -348028521 -45887281 -1934763013
            -190627831 -74712401 -1 -7 -8 0 0 0 0 0 0 524288 0 0 -9 -10
            4 0 1048576 0 0 0 0 0 0 -11 -12 0 135169 276955136 16384
            4096 557056 0 10 131072 -13 -14 5 0 0 0 0 0 0 0 2 -15 -16 2
            -115618925 -788430848 1090523137 -1996402687 -2134736759
            -2147467136 -2147432293 -114308197 -17 -18 4 524288 0 0 0
            32768 0 0 131074 -19 -20 4 -805158896 1342177280 1
            -1056964608 1 134217728 2 -2147319678 26 27 106 3418624
            536641151 -8355777 -1363247169 2147237876 2147352574
            2004819965 236982384 28 -21 124 -136314881 -141049517
            -721292401 -708323513 -2138322517 -1147959157 -766248741
            -525313 -22 -23 0 128 0 0 16777216 -2147483648 0 0 131072
            -24 -25 0 268501248 268435456 0 1 2 0 144 -2138963967 -26 29
            62 17879040 -2147483648 0 0 4096 0 0 0 30 -27 104 -102245889
            -11283685 -1056778849 -36350569 -952242689 -71647045
            -913577473 -2102565 -28 31 61 -2147450880 0 4 0 0 0 0 2048
            32 -29 79 -35792897 -420013 -1659824643 -6450795 -1701799425
            -1148616533 -1716933697 -5273413 -30 -31 12 0 0 0 0 0 0
            32768 0 33 -32 64 -572524545 -4740679 -216935971 -33959461
            -746275857 -73481681 -678698305 -1633 -33 -34 54 -4719617
            -78135137 1598276567 -184034849 -657731681 -314593085
            -32113669 -68425217</internalNodes>
          <leafValues>
            -1. -1. 1. -1. 1. -1. 1. -1. 1. -1. 1. -1. 1. -1. 1. -1. 1.
            -1. 1. -1. 1. 8.0000001192092896e-01 -1. 1. -1. 1. -1. 1.
            -1. 1. -1. 1. 1. -9.9741435050964355e-01 1.</leafValues></_>
        <_>
          <internalNodes>
            1 2 101 72357717 -1076563695 -1862084641 -4452006 -888366339
            -72832629 -1173636353 -1346631664 3 4 92 897586687 -2551501
            -1660372483 -1625501675 -1182745878 -18317144 -1954005025
            -1615323096 5 6 41 -4273 -285212674 -65618 -386990082
            2130673510 2004877303 -557788 -168296457 7 8 63 -134217729
            -243795573 1075921041 -1058553077 -1056730693 1646362816
            -259538278 -137897049 9 10 42 -918302258 16842752 1048576
            1074036770 65795 0 163856 -1069186925 11 12 135 -800988465
            114817 541065216 1476624914 -2147385205 1342242816
            1610661888 -796929461 13 14 125 -335548884 149942015
            264241154 721306120 2147483447 1744797567 2013263717
            1962921999 15 16 81 1433514495 -45010475 277907935 -40777451
            -1467442501 -3538786 -1742693381 -4615988 17 0 47
            -2147483631 268435456 8388625 1090519040 -2147483639
            -2147483520 0 575225858 -1 -2 2 -934034802 -721223679 8272
            -805240832 -2138898294 -2147483518 1073807360 -888422261 18
            -3 14 1073774594 788512512 22 1040252928 1476362103
            2147483647 2147417975 1744793463 19 20 65 -648035665
            -2092597246 536957200 1343455643 -1040154582 1090519040
            -2113697654 -187958897 -4 -5 102 268440096 0 32 16842753 0 0
            40 553648128 -6 -7 109 -1073512309 268500993 16777223
            -2147418112 3 0 0 -641494949 21 22 98 402654864 -2147483136
            -2147483520 -2146434944 712704 -2147483647 1157627904
            18350208 23 24 76 -10486785 -228597493 -519995309 -779910361
            -997998421 -2121203711 1378344971 -136842337 -8 -9 3 64 0 0
            0 0 -2147483648 0 131072 -10 -11 0 -1879015407 -1879048192
            17 -2130706431 32778 0 -2147483640 -486408190 -12 -13 1
            -1878998927 268435456 8454144 0 0 16384 8 -2147286910 -14
            -15 10 -37224485 -805207552 131081 -653029373 -2146889722
            -771719168 -636878846 -81805141 -16 -17 4 524288 0 0 0 0 0 0
            163842 -18 -19 0 1342193665 1342177280 0 -805306368 0 0
            -2147483632 -2004744061 25 26 113 -805240832 256 0 135168 4
            8388616 131072 1073741824 27 -20 71 -673186817 -681847845
            -925786657 -538979897 -1425549825 -41185109 -204735489
            -1069089 -21 -22 0 256 0 0 0 0 0 0 2 -23 -24 5 -2147385341
            16777216 64 268435456 0 0 128 -2147483498 -25 28 84 50331712
            3194896 -67108864 788016876 2138336052 1987345645 -545378444
            262144 29 -26 116 -2098177 -2637757 18432475 -573574705
            -275794005 -83312502 -787746085 -3148801 -27 -28 31 258 0 0
            0 0 0 -2147483648 0 30 -29 86 -778832385 -175041967
            -2062460417 -7267947 -1106736129 -75399000 -1198880277
            -71595645 31 -30 105 -10747905 -11021945 285263327
            -547368161 -896812321 -275830621 -477377553 -1057 -31 -32 16
            -606076929 -579497645 -216971265 -50087141 -90456897
            -70287217 -963859489 -33</internalNodes>
          <leafValues>
            1. -1. 1. 1. -1. 1. -1. 1. -1. 1. -1. 1. -1. 1. -1. 1. -1.
            1. -1. 1. 7.7726650238037109e-01 -1. 1. -1. 1.
            -8.0005174875259399e-01 7.4943381547927856e-01 -1. 1.
            6.7783087491989136e-01 1. -1. 1.</leafValues></_></weakClassifiers></_>
    <!-- stage 4 -->
    <_>
      <maxWeakCount>1</maxWeakCount>
      <stageThreshold>6.0000002384185791e-01</stageThreshold>
      <weakClassifiers>
        <_>
          <internalNodes>
            1 2 58 -1996948611 -82666793 -578692609 -1143705159
            -1198605315 -73680215 -1733641218 -1363662068 3 4 89
            491001813 -682540719 -1716414753 -1080557157 -2012670979
            -1089896227 176818653 -1087829864 5 6 26 -420483578
            654311407 -352846038 -352452626 1710718775 1736407031
            1987572832 -134742153 7 8 69 -552337409 -15198837 1466997759
            -5154469 -628826369 -72234277 -578168641 -1086814244 9 10 82
            792493885 -75905 -536870915 -1073872383 -38690 -1 -90242
            785921917 11 12 37 -1051465889 -787889918 -2147368942
            -1056292864 537280554 25202689 1073797249 -784080189 13 14
            128 1083425216 149876716 1049600 585515040 -156 2013265919
            -167772352 1344258838 15 0 87 -653134849 -615411529
            1904227799 -10911437 -634733893 -6584189 -1182691925
            -1336673 16 17 75 1157694387 65537 2 -2129657856 -1073184766
            -939524096 -2139062144 -534740477 -1 18 129 -804085749
            -805171200 1048649 268501249 1073873296 -1878982655
            1074020352 -793788029 -2 -3 111 524561 4097 48 16777216 2090
            -2147483648 8388736 2097152 19 -4 29 -649333349 -669843390
            4227072 -914145087 537624581 134217856 285212810 -586155861
            -5 -6 91 -2130149248 -2147483648 65539 16908290 16777216 0 0
            4224 -7 -8 60 -787889899 -889192448 1 1342242816 -2147442551
            -1845493504 134217736 -669806445 20 21 121 -1098907858
            -2136035346 -67584 -2063667218 2146959221 1891989494
            -42582224 73792514 22 23 80 -174466593 -134508069 -721053217
            -542174819 -594567425 -24213368 -74862593 -287349 -9 -10 6
            -1056472805 268566529 16 -2146369536 1073774732 -2147483648
            0 -922499429 -11 -12 1 33570816 0 0 1073741824 0 0 0 8 -13
            -14 1 1073741826 0 0 0 0 0 0 0 -15 -16 28 -212870693
            1099005962 1 -753598204 1342212170 -2147352574 -2004877310
            -83629733 -17 -18 21 4112 268435456 1 16793616 32938 0
            163840 1526857728 24 25 107 1072956412 620674942 1071675388
            754757308 2147237756 2113699839 788299636 543174240 26 -19
            78 -137635841 -7210529 -1860707329 -419115 -383845889
            -1077280117 -1987186689 -6320193 -20 -21 7 0 0 0 0 0 0 8
            67108864 -22 -23 1 -2139090875 0 8 0 128 33554432 2
            -2147287038 -24 -25 110 4194304 0 4112 0 2097152 134217728 4
            0 27 -26 130 -136315393 -142616381 -787821221 -144714869
            -356271873 -23363054 -758387749 -1053733 -27 -28 99
            -653001217 -716141 1527894495 -144843557 -571950085 -5297991
            -1869968929 -7632193</internalNodes>
          <leafValues>
            1. -1. -1. 1. 1. -1. 1. -1. 1. -1. 1. -1. 1. -1. 1. -1. 1.
            -1. 1. 6.0000002384185791e-01 -1. 1. -1. 1. -1. 1.
            6.6666668653488159e-01 -1. 1.</leafValues></_></weakClassifiers></_></stages>
  <features>
    <_>
      <rect>
        0 0 1 1</rect></_>
    <_>
      <rect>
        0 0 1 2</rect></_>
    <_>
      <rect>
        0 0 1 3</rect></_>
    <_>
      <rect>
        0 0 1 4</rect></_>
    <_>
      <rect>
        0 0 1 5</rect></_>
    <_>
      <rect>
        0 0 1 6</rect></_>
    <_>
      <rect>
        0 0 1 8</rect></_>
    <_>
      <rect>
        0 0 1 12</rect></_>
    <_>
      <rect>
        0 0 1 19</rect></_>
    <_>
      <rect>
        0 0 2 10</rect></_>
    <_>
      <rect>
        0 0 2 17</rect></_>
    <_>
      <rect>
        0 0 2 19</rect></_>
    <_>
      <rect>
        0 0 2 30</rect></_>
    <_>
      <rect>
        0 0 3 10</rect></_>
    <_>
      <rect>
        0 0 4 8</rect></_>
    <_>
      <rect>
        0 0 4 12</rect></_>
    <_>
      <rect>
        0 0 5 4</rect></_>
    <_>
      <rect>
        0 0 5 34</rect></_>
    <_>
      <rect>
        0 0 10 22</rect></_>
    <_>
      <rect>
        0 0 16 5</rect></_>
    <_>
      <rect>
        0 1 3 14</rect></_>
    <_>
      <rect>
        0 1 15 1</rect></_>
    <_>
      <rect>
        0 1 18 34</rect></_>
    <_>
      <rect>
        0 1 23 9</rect></_>
    <_>
      <rect>
        0 2 11 4</rect></_>
    <_>
      <rect>
        0 2 13 12</rect></_>
    <_>
      <rect>
        0 4 2 5</rect></_>
    <_>
      <rect>
        0 6 2 5</rect></_>
    <_>
      <rect>
        0 8 7 49</rect></_>
    <_>
      <rect>
        0 9 4 22</rect></_>
    <_>
      <rect>
        0 16 1 9</rect></_>
    <_>
      <rect>
        0 17 11 14</rect></_>
    <_>
      <rect>
        0 18 2 42</rect></_>
    <_>
      <rect>
        0 19 3 47</rect></_>
    <_>
      <rect>
        0 31 1 11</rect></_>
    <_>
      <rect>
        0 38 2 18</rect></_>
    <_>
      <rect>
        0 53 1 25</rect></_>
    <_>
      <rect>
        0 78 1 20</rect></_>
    <_>
      <rect>
        0 80 1 9</rect></_>
    <_>
      <rect>
        0 94 18 19</rect></_>
    <_>
      <rect>
        0 100 9 9</rect></_>
    <_>
      <rect>
        0 104 2 5</rect></_>
    <_>
      <rect>
        0 115 3 11</rect></_>
    <_>
      <rect>
        0 116 3 11</rect></_>
    <_>
      <rect>
        0 120 1 5</rect></_>
    <_>
      <rect>
        0 130 2 3</rect></_>
    <_>
      <rect>
        0 134 2 3</rect></_>
    <_>
      <rect>
        1 0 3 5</rect></_>
    <_>
      <rect>
        1 3 4 4</rect></_>
    <_>
      <rect>
        2 4 2 29</rect></_>
    <_>
      <rect>
        2 10 3 25</rect></_>
    <_>
      <rect>
        2 28 4 36</rect></_>
    <_>
      <rect>
        2 113 3 10</rect></_>
    <_>
      <rect>
        2 123 1 8</rect></_>
    <_>
      <rect>
        3 16 3 15</rect></_>
    <_>
      <rect>
        3 26 6 31</rect></_>
    <_>
      <rect>
        3 135 6 8</rect></_>
    <_>
      <rect>
        3 140 1 1</rect></_>
    <_>
      <rect>
        4 0 8 2</rect></_>
    <_>
      <rect>
        4 1 9 3</rect></_>
    <_>
      <rect>
        4 14 4 10</rect></_>
    <_>
      <rect>
        4 44 16 19</rect></_>
    <_>
      <rect>
        4 63 1 3</rect></_>
    <_>
      <rect>
        4 82 1 22</rect></_>
    <_>
      <rect>
        4 96 7 5</rect></_>
    <_>
      <rect>
        4 103 1 5</rect></_>
    <_>
      <rect>
        5 11 1 29</rect></_>
    <_>
      <rect>
        5 102 18 3</rect></_>
    <_>
      <rect>
        6 2 1 15</rect></_>
    <_>
      <rect>
        6 4 10 2</rect></_>
    <_>
      <rect>
        6 48 1 32</rect></_>
    <_>
      <rect>
        6 122 16 9</rect></_>
    <_>
      <rect>
        7 3 5 8</rect></_>
    <_>
      <rect>
        7 4 16 3</rect></_>
    <_>
      <rect>
        7 41 1 9</rect></_>
    <_>
      <rect>
        7 44 3 22</rect></_>
    <_>
      <rect>
        7 55 1 30</rect></_>
    <_>
      <rect>
        8 1 15 6</rect></_>
    <_>
      <rect>
        8 4 12 4</rect></_>
    <_>
      <rect>
        8 7 16 2</rect></_>
    <_>
      <rect>
        8 81 2 1</rect></_>
    <_>
      <rect>
        9 157 17 1</rect></_>
    <_>
      <rect>
        12 4 7 2</rect></_>
    <_>
      <rect>
        13 67 1 18</rect></_>
    <_>
      <rect>
        13 105 4 16</rect></_>
    <_>
      <rect>
        13 158 10 1</rect></_>
    <_>
      <rect>
        14 9 13 1</rect></_>
    <_>
      <rect>
        15 155 8 1</rect></_>
    <_>
      <rect>
        16 158 11 1</rect></_>
    <_>
      <rect>
        17 158 14 1</rect></_>
    <_>
      <rect>
        18 52 11 8</rect></_>
    <_>
      <rect>
        19 32 5 31</rect></_>
    <_>
      <rect>
        19 158 10 1</rect></_>
    <_>
      <rect>
        20 0 3 2</rect></_>
    <_>
      <rect>
        20 0 7 1</rect></_>
    <_>
      <rect>
        20 1 15 3</rect></_>
    <_>
      <rect>
        21 158 14 1</rect></_>
    <_>
      <rect>
        22 137 12 1</rect></_>
    <_>
      <rect>
        24 1 1 3</rect></_>
    <_>
      <rect>
        26 64 6 1</rect></_>
    <_>
      <rect>
        30 0 10 2</rect></_>
    <_>
      <rect>
        32 0 6 1</rect></_>
    <_>
      <rect>
        32 37 7 29</rect></_>
    <_>
      <rect>
        33 0 10 1</rect></_>
    <_>
      <rect>
        33 6 8 6</rect></_>
    <_>
      <rect>
        36 125 6 12</rect></_>
    <_>
      <rect>
        38 4 2 2</rect></_>
    <_>
      <rect>
        38 56 2 35</rect></_>
    <_>
      <rect>
        42 4 7 2</rect></_>
    <_>
      <rect>
        44 24 8 27</rect></_>
    <_>
      <rect>
        46 3 3 3</rect></_>
    <_>
      <rect>
        47 5 3 2</rect></_>
    <_>
      <rect>
        48 49 6 26</rect></_>
    <_>
      <rect>
        53 112 4 6</rect></_>
    <_>
      <rect>
        56 6 4 29</rect></_>
    <_>
      <rect>
        56 9 3 28</rect></_>
    <_>
      <rect>
        58 40 1 5</rect></_>
    <_>
      <rect>
        61 31 2 32</rect></_>
    <_>
      <rect>
        61 46 2 2</rect></_>
    <_>
      <rect>
        61 52 1 8</rect></_>
    <_>
      <rect>
        61 60 2 24</rect></_>
    <_>
      <rect>
        61 132 2 4</rect></_>
    <_>
      <rect>
        62 117 2 9</rect></_>
    <_>
      <rect>
        63 10 2 4</rect></_>
    <_>
      <rect>
        63 104 2 18</rect></_>
    <_>
      <rect>
        64 13 2 2</rect></_>
    <_>
      <rect>
        64 33 2 3</rect></_>
    <_>
      <rect>
        64 79 2 10</rect></_>
    <_>
      <rect>
        64 97 2 6</rect></_>
    <_>
      <rect>
        64 113 2 15</rect></_>
    <_>
      <rect>
        65 123 1 2</rect></_>
    <_>
      <rect>
        67 2 1 24</rect></_>
    <_>
      <rect>
        67 14 1 2</rect></_>
    <_>
      <rect>
        67 19 1 34</rect></_>
    <_>
      <rect>
        67 45 1 12</rect></_>
    <_>
      <rect>
        67 106 1 15</rect></_></features></cascade>
</opencv_storage>
